digraph Tree {
node [shape=box, fontname="helvetica"] ;
edge [fontname="helvetica"] ;
0 [label="start_hour <= 6.5\nsquared_error = 2482.01\nsamples = 4292\nvalue = 44.132"] ;
1 [label="start_hour <= 5.5\nsquared_error = 176.655\nsamples = 1239\nvalue = 7.779"] ;
0 -> 1 [labeldistance=2.5, labelangle=45, headlabel="True"] ;
2 [label="max_temp <= 18.6\nsquared_error = 25.057\nsamples = 1058\nvalue = 3.924"] ;
1 -> 2 ;
3 [label="start_hour <= 4.5\nsquared_error = 11.43\nsamples = 720\nvalue = 2.631"] ;
2 -> 3 ;
4 [label="start_hour <= 1.5\nsquared_error = 5.408\nsamples = 592\nvalue = 1.86"] ;
3 -> 4 ;
5 [label="squared_error = 9.628\nsamples = 215\nvalue = 3.019"] ;
4 -> 5 ;
6 [label="squared_error = 1.799\nsamples = 377\nvalue = 1.199"] ;
4 -> 6 ;
7 [label="start_weekday <= 4.5\nsquared_error = 23.829\nsamples = 128\nvalue = 6.195"] ;
3 -> 7 ;
8 [label="squared_error = 19.72\nsamples = 89\nvalue = 8.18"] ;
7 -> 8 ;
9 [label="squared_error = 3.709\nsamples = 39\nvalue = 1.667"] ;
7 -> 9 ;
10 [label="start_hour <= 0.5\nsquared_error = 42.922\nsamples = 338\nvalue = 6.68"] ;
2 -> 10 ;
11 [label="start_weekday <= 5.5\nsquared_error = 59.099\nsamples = 69\nvalue = 10.87"] ;
10 -> 11 ;
12 [label="squared_error = 18.819\nsamples = 61\nvalue = 8.967"] ;
11 -> 12 ;
13 [label="squared_error = 128.234\nsamples = 8\nvalue = 25.375"] ;
11 -> 13 ;
14 [label="start_hour <= 4.5\nsquared_error = 33.116\nsamples = 269\nvalue = 5.606"] ;
10 -> 14 ;
15 [label="squared_error = 18.39\nsamples = 217\nvalue = 4.157"] ;
14 -> 15 ;
16 [label="squared_error = 49.226\nsamples = 52\nvalue = 11.654"] ;
14 -> 16 ;
17 [label="is_weekend <= 0.5\nsquared_error = 468.324\nsamples = 181\nvalue = 30.309"] ;
1 -> 17 ;
18 [label="max_temp <= 11.4\nsquared_error = 337.313\nsamples = 136\nvalue = 38.603"] ;
17 -> 18 ;
19 [label="max_temp <= -0.3\nsquared_error = 156.983\nsamples = 63\nvalue = 26.254"] ;
18 -> 19 ;
20 [label="squared_error = 96.798\nsamples = 19\nvalue = 16.211"] ;
19 -> 20 ;
21 [label="squared_error = 120.605\nsamples = 44\nvalue = 30.591"] ;
19 -> 21 ;
22 [label="start_month <= 4.5\nsquared_error = 247.754\nsamples = 73\nvalue = 49.26"] ;
18 -> 22 ;
23 [label="squared_error = 99.889\nsamples = 6\nvalue = 29.667"] ;
22 -> 23 ;
24 [label="squared_error = 223.537\nsamples = 67\nvalue = 51.015"] ;
22 -> 24 ;
25 [label="max_temp <= 10.3\nsquared_error = 28.14\nsamples = 45\nvalue = 5.244"] ;
17 -> 25 ;
26 [label="max_temp <= 3.05\nsquared_error = 1.322\nsamples = 22\nvalue = 1.364"] ;
25 -> 26 ;
27 [label="squared_error = 0.5\nsamples = 16\nvalue = 1.0"] ;
26 -> 27 ;
28 [label="squared_error = 2.222\nsamples = 6\nvalue = 2.333"] ;
26 -> 28 ;
29 [label="max_temp <= 19.15\nsquared_error = 25.607\nsamples = 23\nvalue = 8.957"] ;
25 -> 29 ;
30 [label="squared_error = 34.237\nsamples = 13\nvalue = 10.385"] ;
29 -> 30 ;
31 [label="squared_error = 8.29\nsamples = 10\nvalue = 7.1"] ;
29 -> 31 ;
32 [label="max_temp <= 12.5\nsquared_error = 2663.626\nsamples = 3053\nvalue = 58.885"] ;
0 -> 32 [labeldistance=2.5, labelangle=-45, headlabel="False"] ;
33 [label="start_hour <= 18.5\nsquared_error = 853.032\nsamples = 1551\nvalue = 31.888"] ;
32 -> 33 ;
34 [label="max_temp <= 3.6\nsquared_error = 920.647\nsamples = 1167\nvalue = 38.602"] ;
33 -> 34 ;
35 [label="max_temp <= -0.3\nsquared_error = 450.443\nsamples = 631\nvalue = 28.339"] ;
34 -> 35 ;
36 [label="squared_error = 271.845\nsamples = 355\nvalue = 21.986"] ;
35 -> 36 ;
37 [label="squared_error = 561.467\nsamples = 276\nvalue = 36.511"] ;
35 -> 37 ;
38 [label="max_temp <= 9.15\nsquared_error = 1204.205\nsamples = 536\nvalue = 50.685"] ;
34 -> 38 ;
39 [label="squared_error = 883.911\nsamples = 359\nvalue = 44.047"] ;
38 -> 39 ;
40 [label="squared_error = 1583.255\nsamples = 177\nvalue = 64.147"] ;
38 -> 40 ;
41 [label="start_hour <= 20.5\nsquared_error = 94.119\nsamples = 384\nvalue = 11.482"] ;
33 -> 41 ;
42 [label="max_temp <= 7.5\nsquared_error = 120.823\nsamples = 149\nvalue = 17.906"] ;
41 -> 42 ;
43 [label="squared_error = 72.645\nsamples = 106\nvalue = 14.358"] ;
42 -> 43 ;
44 [label="squared_error = 132.088\nsamples = 43\nvalue = 26.651"] ;
42 -> 44 ;
45 [label="start_hour <= 21.5\nsquared_error = 34.429\nsamples = 235\nvalue = 7.409"] ;
41 -> 45 ;
46 [label="squared_error = 50.2\nsamples = 84\nvalue = 11.119"] ;
45 -> 46 ;
47 [label="squared_error = 13.736\nsamples = 151\nvalue = 5.344"] ;
45 -> 47 ;
48 [label="start_hour <= 19.5\nsquared_error = 3003.517\nsamples = 1502\nvalue = 86.762"] ;
32 -> 48 ;
49 [label="start_hour <= 15.5\nsquared_error = 2618.405\nsamples = 1108\nvalue = 104.868"] ;
48 -> 49 ;
50 [label="start_weekday <= 3.5\nsquared_error = 1799.795\nsamples = 707\nvalue = 91.911"] ;
49 -> 50 ;
51 [label="squared_error = 1288.093\nsamples = 408\nvalue = 82.574"] ;
50 -> 51 ;
52 [label="squared_error = 2216.729\nsamples = 299\nvalue = 104.652"] ;
50 -> 52 ;
53 [label="start_hour <= 18.5\nsquared_error = 3243.786\nsamples = 401\nvalue = 127.713"] ;
49 -> 53 ;
54 [label="squared_error = 2754.552\nsamples = 297\nvalue = 145.192"] ;
53 -> 54 ;
55 [label="squared_error = 1276.95\nsamples = 104\nvalue = 77.798"] ;
53 -> 55 ;
56 [label="start_hour <= 20.5\nsquared_error = 572.065\nsamples = 394\nvalue = 35.845"] ;
48 -> 56 ;
57 [label="max_temp <= 20.85\nsquared_error = 713.338\nsamples = 101\nvalue = 57.703"] ;
56 -> 57 ;
58 [label="squared_error = 379.674\nsamples = 25\nvalue = 28.08"] ;
57 -> 58 ;
59 [label="squared_error = 439.484\nsamples = 76\nvalue = 67.447"] ;
57 -> 59 ;
60 [label="max_temp <= 22.5\nsquared_error = 301.907\nsamples = 293\nvalue = 28.311"] ;
56 -> 60 ;
61 [label="squared_error = 146.677\nsamples = 124\nvalue = 18.702"] ;
60 -> 61 ;
62 [label="squared_error = 298.349\nsamples = 169\nvalue = 35.361"] ;
60 -> 62 ;
}
